782 100
you 0.002260834 0.0070346165 0.005121435 -0.0029108322 0.0034369288 -0.0025322651 0.0023164558 -0.0070458935 -0.0045750127 0.002805214 -0.00023553848 -0.0026785575 -0.003982217 -0.007160176 0.00626337 0.00068663474 0.0016874205 8.7795255e-05 0.0064861607 -0.0024069117 0.0031586562 -0.0050619384 0.005888871 0.0012031198 -0.0052879415 0.0035737024 0.008875997 -0.007850917 0.0062610516 0.0033295047 -0.0029982221 -0.008528386 0.0017489814 0.0012758994 0.0030983794 0.0069248127 -0.0043639923 -0.008369246 -0.005889982 0.0036027215 0.006831467 0.0038257812 -0.001985495 0.001778574 -0.0030075824 0.006853579 0.0028703427 0.009772202 -0.0052140914 -0.00064069626 -0.0039149974 0.0046552992 0.0027801215 0.0026279162 -0.00981518 -0.002079104 0.0087133255 0.008386144 0.0049538156 0.0011432958 0.0033021413 0.0074668154 0.0010286641 0.0061417446 -0.0031295347 -0.007990575 -0.001376357 -0.00038725615 0.0035189723 0.007504289 0.0052994536 0.0054944693 0.007576525 -0.009456236 0.006388675 -0.0037733114 0.0010814822 -0.006150528 0.0076240823 -0.005643978 -0.0010124313 -0.008256219 -0.0052342103 0.008773072 0.0026293695 0.0041825236 -0.0050213835 -0.008769547 -0.0072024902 -0.0059092413 -0.009053163 0.0065744603 0.0062312745 -0.0054838606 -0.0021590579 -0.0061310995 -0.0051455772 0.007915441 -0.008396243 -0.0049814093
your 0.20380758 -0.20699437 -0.22184245 0.21444371 -0.21208918 -0.21443908 0.21871088 -0.20373924 0.22867987 -0.2024152 -0.20653799 -0.20817 0.22519691 -0.1976476 -0.20415083 -0.22181726 0.21260224 -0.21332864 0.21391352 0.21878949 -0.21646279 -0.20076999 0.22655018 0.21991695 0.20815492 0.20570281 -0.21162224 -0.21154174 -0.19762892 0.1971024 0.2157474 -0.20799078 -0.21038134 -0.22297841 0.21622397 -0.21760383 -0.2192622 -0.19981974 0.20785902 0.20963314 0.20659275 0.21626022 -0.20329167 -0.21614039 0.21708527 -0.21423893 0.22119126 -0.21732315 -0.21378292 -0.21407717 -0.20042282 0.21757194 0.22015695 0.20844726 -0.21651016 0.21293019 -0.22396982 -0.21850576 0.21132211 0.2111919 -0.2076661 -0.21170326 0.21716602 0.22261201 -0.2111502 0.22197004 0.21629572 -0.21145433 0.20452584 0.20807232 -0.19605365 0.21210337 -0.2071108 0.21006982 0.21870232 -0.21401866 0.21251096 0.20815106 0.20179015 0.2144171 -0.21153441 -0.21507044 0.22223413 0.21208365 0.21964973 -0.20889679 -0.21708734 0.21588346 0.21420318 0.21234858 -0.2198517 -0.205857 0.20599352 0.20961522 -0.2124111 0.19991222 0.20565516 -0.21203056 -0.20783997 -0.20943256
